encog,BasicNetwork,java,3.4.0,1,1462935947497
[BASIC]
[BASIC:PARAMS]
[BASIC:NETWORK]
beginTraining=0
connectionLimit=0
contextTargetOffset=0,0,0,0,0,0,0,0
contextTargetSize=0,0,0,0,0,0,0,0
endTraining=7
hasContext=f
inputCount=8
layerCounts=1,4,5,6,8,15,22,9
layerFeedCounts=1,3,4,5,7,14,21,8
layerContextCount=0,0,0,0,0,0,0,0
layerIndex=0,1,5,10,16,24,39,61
output=0,0,0,0,1,0,0,0,0,1,0,0,0,0,0,1,0,0,0,0,0,0,0,1,0,0,0,0,0,0,0,0,0,0,0,0,0,0,1,0,0,0,0,0,0,0,0,0,0,0,0,0,0,0,0,0,0,0,0,0,1,0,0,0,0,0,0,0,0,1
outputCount=1
weightIndex=0,4,19,43,83,188,496,685
weights=0.0936767863,-0.2056777414,0.131979341,-0.2769576955,-0.0432901698,-0.0762498983,-0.6539464971,-0.7347129379,-0.7438794578,0.7853994882,-0.1404493359,0.456925135,0.0038982458,-0.3804858817,-0.8953819433,-0.7887487643,0.8857627283,0.3342291521,-0.8191714776,-0.3512671054,-0.3414657202,-0.2517458495,-0.4786120843,0.398499905,-0.3513731007,-0.7023158392,-0.9591364498,-0.7102109764,-0.4469069148,0.7566961014,-0.8958062206,0.0092684487,-0.0982119938,-0.869155054,-0.8982578024,-0.2391489956,-0.1078721356,-0.1012308771,0.0593089409,-0.9905031913,-0.3747932023,0.8816335799,0.1687520181,0.5880536257,0.8694470181,-0.780681999,-0.8476775602,-0.8455620498,0.8498380067,0.560793715,0.4225007356,0.6197622172,0.6409493927,0.9080933638,-0.8899117824,-0.0286512335,0.7951441708,-0.0799131646,-0.8830989086,0.142047336,-0.3306547994,-0.3341552145,0.6093189876,-0.2659403069,0.3287561581,-0.6272820133,0.6266624779,-0.6168907837,0.7967951905,0.9633381406,0.4045650753,-0.2776465964,0.7755902927,-0.7063293856,-0.8045282321,-0.5007890815,-0.9377192752,-0.9053671551,0.6049812617,0.285304031,0.6246538056,-0.2940145485,0.6898384691,-0.4849492669,-0.8187250719,0.3307460337,0.0248916774,0.9790062542,0.037307316,0.9270511652,-0.9573017469,0.8214981367,0.4658035759,0.3346593372,-0.0241391269,-0.7775047238,-0.2996739152,-0.5845553546,-0.8314320412,0.7648186972,-0.7631614312,-0.9897085639,0.9096012833,-0.7398903408,0.5716157458,-0.9581335449,0.2257234449,0.4370009641,0.6257733379,0.3368062522,0.6452581064,-0.0562037186,-0.917025808,-0.9979721781,-0.6864881593,0.4702567299,0.3440811782,0.8088394316,0.2011954934,-0.1504047575,0.523345454,-0.4021620544,-0.6278309471,-0.8148625085,-0.8979682448,-0.9279031543,-0.3362457151,-0.4845757106,0.5258597264,-0.1901133439,0.018206133,0.9690089268,-0.2091059063,-0.9842369835,0.1066341507,-0.6407345982,-0.980549367,0.7818520061,0.3857775607,-0.2687947686,0.414211284,0.0232418039,0.1893788269,0.4764353409,-0.2586452108,-0.7592414158,-0.3332526287,0.0502756627,0.7200547962,-0.7155942063,-0.9198077304,0.9278205105,0.3123255132,0.3722567326,-0.9217172725,0.2508184819,-0.7149018199,0.1020504018,0.9198813016,0.5620930591,0.6718408552,0.8679669728,0.3069324106,0.6175097497,0.6617181,-0.4314334969,-0.6041958017,-0.2736094656,0.3274856324,-0.2289691831,-0.1841409227,-0.8656162898,-0.6339607509,-0.3140615836,-0.7427797736,0.6991435283,0.0388893389,0.3729901587,0.9652836069,0.2037856304,-0.710591119,-0.7289146146,0.7238080706,-0.2758581472,-0.0253741487,-0.007656228,0.1057349037,-0.8573996266,0.7782008948,-0.098540275,0.1937240512,-0.6551146368,0.5039747327,0.0774527557,0.6250368808,-0.5341046198,-0.2299605706,-0.2535145725,0.0975530047,0.0049786229,-0.7981488321,0.6484572262,-0.0707816623,-0.8026251867,0.2195205915,0.6114152456,-0.6423592797,0.2498006205,-0.5442970746,0.3357931077,-0.3484505872,0.1014703125,-0.8118128252,-0.6560398075,0.8041052091,0.557697554,0.9850785215,-0.2854305798,-0.9463224442,-0.6598628184,-0.249386143,0.5459126556,0.4617875618,-0.1697365535,0.4223568313,-0.0461396068,-0.7314267432,-0.9390278537,0.8261221339,0.1630372734,-0.560074871,-0.2808089231,-0.9912926047,0.9145113537,0.1512976522,-0.0754299149,-0.1029934084,-0.7988823737,-0.8142433253,-0.1347949032,0.4282769835,-0.0072176326,-0.1882703146,-0.632345447,-0.1161168168,0.9700272218,-0.4953257093,-0.0635346008,0.0261671192,-0.2209562727,-0.209940486,-0.9650804704,-0.2975226195,0.148657688,-0.0427422624,-0.3600988109,-0.5298524889,0.8774041225,-0.6140834794,-0.4237885325,0.1343005,0.1227654117,-0.9890398789,-0.4161998319,-0.8123198998,-0.349958804,0.0987229163,-0.9239114147,0.8455731435,0.4675364015,-0.1051819353,-0.1261251164,-0.8337075134,-0.8762347553,-0.0340631664,-0.5308986041,0.6333015581,0.6518025858,-0.6475720124,0.6197931777,-0.9898046451,0.3149489361,0.7072332302,-0.3163337773,0.5244508136,0.4687856316,-0.8945491371,-0.0218126239,0.4042202901,-0.2170013812,0.6318666158,-0.9022721852,-0.2401444211,0.114625961,0.7992571926,0.6190077811,-0.2418799606,-0.2453719228,-0.4680059681,-0.7695990506,-0.3176762977,-0.7379717967,-0.2673306605,0.1828075764,-0.5534463023,-0.0282252542,-0.3721751041,0.6883583591,0.3695567294,-0.2192340612,0.8921067873,0.503919972,-0.4549324521,-0.187538857,-0.2410871932,0.9775241856,0.196183885,-0.2906687069,0.4836540698,0.917540131,-0.6483627028,0.8183706109,-0.7301358886,0.316940747,0.3872374906,-0.395776173,0.8272060306,0.7269332564,-0.7936366053,-0.8551708175,0.0075702219,-0.6778374504,0.9810344526,0.8899708555,0.4995962432,0.3640759237,-0.2413844869,-0.0575492594,0.6302192457,-0.1871667512,-0.4468199456,-0.7323490238,-0.6539683142,0.58258398,-0.7222301982,-0.5038424005,-0.4449000527,0.4676108064,-0.6173509979,-0.7112430345,-0.1967287603,0.8708543108,-0.0115411649,0.3769688602,-0.1438335789,0.9054289742,0.0448413221,-0.617059503,-0.9759133294,-0.6047249497,0.5982824203,-0.514644877,-0.4613276101,-0.6227454854,0.2284371118,-0.7710495138,0.5176284721,-0.9606592934,-0.6232602939,-0.8682244521,0.0343495023,0.6854690409,0.9411472883,0.1239945574,0.177063339,-0.1127820972,0.7472716965,-0.4762961925,0.8836458034,0.9235299867,0.7394025904,0.7819758076,-0.211902454,-0.7501624139,0.8112997922,-0.8175889939,0.6645276879,-0.2573774152,0.7079506303,-0.2497933371,-0.8819183983,0.2230320713,-0.2249505159,0.8842593808,0.6851838754,0.3499834733,-0.678311021,-0.6038882905,-0.4428653524,-0.2157027549,-0.8755809953,-0.3785849797,-0.9932044559,-0.6700315747,-0.7605097347,0.7864406142,0.3942335588,0.5525686476,-0.0714787128,0.6640524543,-0.1868857271,0.4404978174,-0.7195134037,-0.4639612584,0.3750086715,-0.5264452731,0.6045726067,0.9857969355,-0.1292789121,0.3576443002,0.8583630411,0.2130602411,0.5410154316,0.6565240608,0.7645000643,0.712769739,-0.237131869,-0.5406849639,-0.8417455699,0.5824365481,-0.9422198636,-0.5083845766,0.0182807001,-0.6340076377,-0.6495407041,-0.305024232,-0.8749506268,0.3795492667,0.5658506575,-0.0195664153,0.6352554071,0.8134166969,-0.2487442702,0.7126679946,0.2615927888,0.5499304317,0.6644369058,-0.9747863171,-0.1771625699,0.5352334101,-0.2120936556,-0.1425733351,-0.2030019788,-0.3836587869,-0.1703224876,0.9783803992,0.749865543,-0.3195479636,0.1620783299,0.7911340346,-0.7432290934,0.8457093396,-0.7809754319,0.6786780532,0.9737919994,-0.648431695,0.4284890494,-0.4434460349,0.9628217383,-0.7393047975,0.3719965847,0.7687158905,-0.3864186474,-0.1312684409,-0.9048526048,-0.2878932549,-0.8817411014,-0.8690908407,-0.7523577687,0.7881660779,0.3235437713,-0.7584083039,0.9223887013,-0.3432309864,-0.4041290298,0.0400724461,0.5507468578,0.3956740355,-0.3215133525,0.4494836508,0.1173781408,-0.8828303869,-0.9507549734,0.3383597389,-0.1711883027,0.8222152238,-0.5280693762,-0.8956006856,0.6717772026,-0.5193932851,-0.0768300998,0.8657933666,0.0716322728,0.2951323388,-0.8604611988,0.9709765768,-0.9718247926,0.3147306116,-0.0925628156,-0.2095293271,-0.3489331779,-0.2631356956,-0.9386617146,-0.158402472,-0.1165840271,0.393809022,-0.8750626546,-0.7849798486,0.0414518135,0.8052184238,0.3538770404,-0.8020925105,-0.1549560318,0.4519626877,-0.7740155883,-0.853364452,-0.487559057,0.6533606931,0.2055530245,0.9792811406,-0.5806518768,-0.1040623993,0.4991194999,-0.0847775561,-0.0365171794,0.9414607156,-0.3263194394,0.6619259883,-0.7726561716,-0.769510974,-0.0139319291,-0.1861019146,0.1524342453,-0.1384015947,-0.3183565637,-0.0234610734,0.8770388471,0.6104228977,-0.7781273431,0.7543941796,-0.271289774,0.6689227687,0.3575778738,-0.3365408642,-0.5524460677,0.3437964015,0.81330611,0.4832055127,0.3579714065,-0.1789391159,-0.5473116474,-0.6142538737,-0.6188816272,-0.8837597962,-0.8077289093,-0.487020919,0.1788562292,0.1256549301,0.7862222524,0.274520098,0.0242059989,-0.5991825475,-0.0094658636,-0.9182078673,-0.2656356169,-0.6273802197,-0.8682734525,-0.287444938,0.6938142114,0.1119018128,-0.9041690002,0.1191412377,-0.2552686617,0.1252687478,-0.15999171,-0.6666293978,0.7375015787,-0.309539801,0.9529756171,-0.3970919721,0.3624490728,0.8090907694,-0.9392660789,-0.3109973141,0.1399239106,0.8391326272,-0.2547689963,-0.055580284,0.8746424757,-0.307636743,-0.9672831108,0.2989459991,0.2982171744,0.2072676548,0.1506841672,0.0876543236,0.5881603869,-0.0821964921,0.8503456363,-0.0815295313,-0.5137245807,-0.1962569747,0.6736174387,0.0458611376,0.5141239046,0.1371135872,-0.716584284,-0.4891381223,-0.5259738314,-0.899187719,-0.7641919931,-0.1726547069,0.7759711012,-0.2365698161,0.3730889176,-0.8314146692,-0.5847529185,-0.3786488744,0.0043704279,0.2451105113,-0.5090493825,0.8862907017,0.9288796768,-0.9974266606,0.1604064798,0.657851839,-0.9252229628,0.3717333962,0.7832943578,-0.9967944991,0.2081659907,-0.0393433516,-0.3176749803,0.2209177756,-0.6311009417,-0.65959404,-0.7803310399,0.8561589714,-0.3361947577,0.9619758958,-0.4637587278,0.5836535328,0.8265460839,0.9336459761,-0.1986319014,0.9052209209,0.2094786301,0.406154111,0.4091247147,-0.719077708,0.3344507519,-0.228371672,-0.4952814511,0.3697115469,-0.0590392684,-0.1089251506,0.509687405,0.264521676,-0.450099994,0.6099363953,-0.1350523981,0.4460103217,-0.9203120529,0.2790000777,0.5017346127,0.7237852107,-0.0048872744,-0.6682409978,0.5822747383,0.8683909705,-0.9035043921,0.3762893647,0.2175420063,-0.1661743785,0.660748268
biasActivation=0,1,1,1,1,1,1,1
[BASIC:ACTIVATION]
"org.encog.engine.network.activation.ActivationLinear"
"org.encog.engine.network.activation.ActivationLOG"
"org.encog.engine.network.activation.ActivationLOG"
"org.encog.engine.network.activation.ActivationLOG"
"org.encog.engine.network.activation.ActivationLOG"
"org.encog.engine.network.activation.ActivationLOG"
"org.encog.engine.network.activation.ActivationLOG"
"org.encog.engine.network.activation.ActivationLinear"
