encog,BasicNetwork,java,3.4.0,1,1462936247341
[BASIC]
[BASIC:PARAMS]
[BASIC:NETWORK]
beginTraining=0
connectionLimit=0
contextTargetOffset=0,0,0,0,0,0,0,0
contextTargetSize=0,0,0,0,0,0,0,0
endTraining=7
hasContext=f
inputCount=8
layerCounts=1,4,5,6,8,15,22,9
layerFeedCounts=1,3,4,5,7,14,21,8
layerContextCount=0,0,0,0,0,0,0,0
layerIndex=0,1,5,10,16,24,39,61
output=0.8910366533,2.4153561548,-4.2120701346,3.3677031916,1,-2.3556856894,-3.518596182,-2.5340497303,-2.2296387363,1,-2.7195691113,3.5389478306,3.6970304321,2.1750279109,3.5213777635,1,-3.6685148195,4.2077687423,-4.3267436701,3.1356536679,3.9268760234,3.3235886012,-3.7683043594,1,-4.2530903417,-2.5801830077,-4.1876764031,-4.4149150131,4.4221373119,3.5546494001,-3.4242448737,-4.9036592397,5.0780487313,3.5926399762,-3.3287254925,-4.9354142169,5.006207626,4.9195781793,1,-3.1911529143,-4.385783713,4.6466146564,4.1922469529,-4.692846208,-2.6423402206,3.1483374308,4.1516898184,-5.4458242005,4.034033763,-4.9137393691,-4.2177899165,4.8798909814,4.2518344934,5.4014563925,-5.2806175495,3.4464407454,-3.2404277812,2.5688902684,3.7102305698,3.4237043595,1,60.5,-4.25,0,7.4721022365,38.800155099,-2.7703924563,-1.1510541421,0.25,1
outputCount=1
weightIndex=0,4,19,43,83,188,496,685
weights=0.1936767863,-0.7056777414,0.631979341,-5.7769576955,-0.3432901698,-2.3762498983,-1.5539464971,-3.0347129379,-10.8438794578,5.6853994882,7.1595506641,7.556925135,5.7038982458,5.1195141183,-1.9953819433,-4.2887487643,-2.4142372717,-3.1657708479,-6.1191714776,-0.4512671054,-2.6414657202,-0.7517458495,-0.1786120843,0.698499905,0.9486268993,1.5976841608,-1.2591364498,-4.4102109764,-3.1469069148,-0.1433038986,0.4041937794,-0.8907315513,-2.5982119938,-1.369155054,-1.3982578024,1.4608510044,-0.2078721356,-0.4012308771,-1.8406910591,-1.4905031913,0.1252067977,1.1816335799,-0.1312479819,1.8880536257,0.5694470181,-0.880681999,-4.3476775602,1.6544379502,-0.8501619933,0.860793715,-1.2774992644,-0.0802377828,1.1409493927,-0.9919066362,-0.9899117824,3.6713487665,-0.1048558292,-2.3799131646,2.2169010914,-1.957952664,-0.0306547994,-0.6341552145,2.7093189876,2.6340596931,1.4287561581,-0.1272820133,2.7266624779,-1.3168907837,-2.5032048095,1.4633381406,1.1045650753,2.6223534036,0.0755902927,-1.0063293856,-0.7045282321,-0.6007890815,0.5622807248,-0.6053671551,4.5049812617,-0.014695969,1.7246538056,-0.9940145485,3.9898384691,-0.5849492669,-1.5187250719,0.0307460337,0.5248916774,3.0790062542,4.137307316,4.6270511652,1.5426982531,-1.0785018633,0.3658035759,7.6346593372,3.6758608731,2.7224952762,-0.7996739152,-3.0845553546,-4.9314320412,0.2648186972,-7.2631614312,-5.8897085639,4.8096012833,7.7601096592,5.6716157458,2.9418664551,0.7257234449,2.7370009641,5.3257733379,5.6368062522,3.7452581064,-0.5562037186,-4.217025808,0.7020278219,2.0135118407,2.1702567299,-1.1559188218,-1.4911605684,-0.0988045066,-1.0504047575,-0.976654546,-5.9021620544,-7.5278309471,-2.5148625085,-1.3979682448,-1.6279031543,-2.2362457151,-0.1845757106,2.2258597264,-0.4901133439,3.718206133,7.6690089268,-8.3091059063,-4.2842369835,-6.5933658493,-9.9407345982,2.919450633,-2.1181479939,-3.1142224393,-8.5687947686,-3.085788716,0.1232418039,10.6893788269,-0.0235646591,-2.1586452108,1.5407585842,-1.4332526287,-0.4497243373,4.4200547962,-1.4155942063,-1.4198077304,2.0278205105,-3.7876744868,0.0722567326,-3.4217172725,0.9508184819,-1.0149018199,1.0020504018,2.2198813016,2.8620930591,1.3718408552,1.1679669728,0.8069324106,3.7175097497,-2.6382819,-5.1314334969,-1.7041958017,-5.7736094656,-3.7725143676,-5.1289691831,0.1158590773,-3.1656162898,4.0660392491,-3.6140615836,-3.4427797736,0.7991435283,-2.2611106611,2.8729901587,-1.5347163931,3.5037856304,3.189408881,-0.2289146146,-4.7761919294,6.4241418528,5.0746258513,2.292343772,1.6057349037,-2.1573996266,5.0782008948,5.801459725,0.0937240512,-2.3551146368,2.6039747327,-2.6225472443,3.3250368808,-0.4341046198,-0.3299605706,-2.3535145725,2.5975530047,1.5049786229,-0.4981488321,2.5484572262,-0.9707816623,1.6973748133,4.9195205915,-1.0885847544,-3.7423592797,-5.2501993795,3.1557029254,2.2357931077,0.3515494128,-3.5985296875,-4.5118128252,1.6439601925,2.7041052091,3.457697554,7.4850785215,-1.9854305798,-2.8463224442,0.0401371816,5.850613857,0.6459126556,0.9617875618,-2.0697365535,0.5223568313,-0.3461396068,2.5685732568,-3.4390278537,0.7261221339,-3.9369627266,2.539925129,-0.9808089231,2.5087073953,6.6145113537,1.6512976522,-2.1754299149,-0.0029934084,-1.6988823737,3.0857566747,-2.4347949032,1.9282769835,-2.9072176326,-1.4882703146,1.067654553,-0.4161168168,-4.1299727782,-0.3953257093,1.8364653992,2.1261671192,-2.9209562727,-3.509940486,-0.8650804704,5.4024773805,3.248657688,5.8572577376,3.5399011891,0.5701475111,-2.6225958775,-0.7140834794,1.0762114675,5.2343005,-1.3772345883,3.1109601211,-2.9161998319,2.8876801002,0.150041196,-0.0012770837,-7.4239114147,3.3455731435,2.3675364015,2.9948180647,-1.2261251164,-1.1337075134,-2.9762347553,2.6659368336,2.3691013959,-4.0666984419,-0.4481974142,-0.7475720124,1.1197931777,-1.0898046451,-0.1850510639,-4.7927667698,-2.4163337773,-3.3755491864,-0.4312143684,-5.3945491371,-3.1218126239,1.5042202901,4.0829986188,0.5318666158,-5.6022721852,-5.3401444211,1.814625961,2.0992571926,3.3190077811,-3.7418799606,-1.1453719228,-0.9680059681,-6.4695990506,1.5823237023,-2.8379717967,0.0326693395,-1.9171924236,-7.0534463023,-4.5282252542,-2.6721751041,-4.4116416409,-0.1304432706,-4.9192340612,0.3921067873,5.603919972,-0.9549324521,-3.887538857,2.4589128068,2.6775241856,-1.703816115,-5.7906687069,0.1836540698,2.017540131,-1.3483627028,-1.8816293891,-4.4301358886,-1.183059253,5.4872374906,-0.495776173,-3.8727939694,1.2269332564,-7.0936366053,-1.7551708175,-3.2924297781,3.6221625496,-1.3189655474,4.5899708555,-2.0004037568,-3.7359240763,-6.1413844869,1.2424507406,0.5302192457,-0.8871667512,-0.7468199456,-2.6323490238,-1.7539683142,-1.71741602,-4.6222301982,-1.0038424005,4.2550999473,0.3676108064,1.4826490021,-3.8112430345,-3.6967287603,1.7708543108,3.2884588351,6.0769688602,-1.6438335789,-0.1945710258,-1.8551586779,1.682940497,-5.4759133294,2.2952750503,0.0982824203,0.185355123,-2.7613276101,-4.7227454854,-0.4715628882,-0.4710495138,3.2176284721,0.7393407066,-0.9232602939,1.0317755479,5.1343495023,2.3854690409,1.0411472883,0.0239945574,-2.322936661,-3.2127820972,5.0472716965,4.2237038075,4.3836458034,-0.5764700133,-1.5605974096,-1.5180241924,3.088097546,1.7498375861,-0.2887002078,0.4824110061,-4.4354723121,-7.9573774152,0.0079506303,3.4502066629,-1.3819183983,4.1230320713,-0.5249505159,1.7842593808,0.3851838754,0.2499834733,-0.178311021,-2.3038882905,1.2571346476,0.2842972451,-0.5755809953,0.7214150203,-3.0932044559,4.4299684253,-1.0605097347,1.8864406142,-3.5057664412,0.6525686476,-1.5714787128,5.1640524543,-1.0868857271,1.1404978174,0.1804865963,-2.9639612584,-8.3249913285,0.1735547269,-0.2954273933,1.2857969355,-0.6292789121,2.0576443002,0.9583630411,6.7130602411,-0.3589845684,-3.2434759392,-2.5354999357,3.612769739,-2.737131869,-0.6406849639,-0.5417455699,0.2824365481,-9.2422198636,-1.2083845766,-6.6817192999,-3.7340076377,7.0504592959,0.394975768,-2.5749506268,-1.3204507333,-1.7341493425,-3.9195664153,-6.2647445929,2.5134166969,-3.1487442702,1.0126679946,-5.0384072112,-2.9500695683,-5.2355630942,1.1252136829,-0.0771625699,-2.3647665899,-7.7120936556,-5.2425733351,-5.1030019788,-2.2836587869,1.1296775124,0.2783803992,-0.350134457,-0.2195479636,-3.9379216701,2.0911340346,-1.8432290934,2.3457093396,-4.0809754319,-1.8213219468,3.0737919994,2.451568305,-0.6715109506,-3.5434460349,-1.1371782617,-0.0393047975,6.6719965847,7.8687158905,-2.2864186474,1.9687315591,-8.0048526048,-5.3878932549,0.0182588986,5.2309091593,-5.6523577687,4.4881660779,-1.3764562287,1.7415916961,2.0223887013,3.3567690136,-1.9041290298,-1.8599275539,2.2507468578,-0.7043259645,0.5784866475,-1.0505163492,-5.9826218592,1.2171696131,3.7492450266,9.0383597389,-4.4711883027,1.5222152238,-0.0280693762,-1.7956006856,0.7717772026,-0.0193932851,-0.1768300998,14.9657933666,-7.0283677272,-0.0048676612,0.6395388012,-0.5290234232,2.5281752074,0.2147306116,-0.1925628156,0.2904706729,13.9510668221,-3.3631356956,4.9613382854,-2.058402472,1.1834159729,3.493809022,-0.5750626546,6.1150201514,-1.0585481865,-9.6947815762,1.6538770404,0.0979074895,6.3450439682,0.9519626877,7.5259844117,-0.753364452,0.012440943,0.1533606931,-12.2944469755,0.6792811406,2.9193481232,1.5959376007,-1.6008805001,-9.1847775561,-2.1365171794,-0.9585392844,0.1736805606,13.9619259883,-4.6726561716,-7.069510974,-4.3139319291,-0.4861019146,-3.1475657547,-4.8384015947,-0.8183565637,-0.3234610734,-2.4229611529,-1.4895771023,-6.2781273431,3.4543941796,-1.171289774,-8.6310772313,-2.7424221262,0.3634591358,1.3475539323,1.4437964015,5.31330611,-7.2167944873,2.0579714065,0.1210608841,4.7526883526,0.8857461263,0.8811183728,1.0162402038,-10.3077289093,-3.987020919,3.6788562292,5.8256549301,-2.3137777476,-1.225479902,-2.0757940011,-0.0991825475,-2.7094658636,-0.8182078673,0.4343643831,-0.1273802197,-2.3682734525,0.212555062,7.9938142114,-0.7880981872,-0.4041690002,1.0191412377,-14.1552686617,0.6252687478,1.74000829,3.2333706022,-1.1624984213,3.590460199,0.2529756171,0.5029080279,-1.7375509272,1.1090907694,-7.6392660789,-1.0109973141,-0.3600760894,0.3391326272,1.6452310037,-0.155580284,-1.0253575243,-1.207636743,6.9327168892,-6.6010540009,-0.4017828256,-3.6927323452,1.2506841672,7.7876543236,0.8881603869,1.6178035079,1.3503456363,-10.3815295313,5.7862754193,4.7037430253,2.3736174387,1.1458611376,2.6141239046,0.2371135872,1.383415716,0.4108618777,2.1740261686,-2.599187719,4.7358080069,-2.0726547069,2.0759711012,4.8634301839,2.8730889176,4.6685853308,1.3152470815,-6.0786488744,0.1043704279,2.5451105113,1.9909506175,-2.6137092983,-3.9711203232,-0.0974266606,0.4604064798,-1.842148161,-0.0252229628,-5.5282666038,-0.9167056422,-2.8967944991,1.9081659907,12.4606566484,2.5823250197,0.7209177756,-1.3311009417,5.04040596,-11.2803310399,9.7561589714,1.3638052423,0.8619758958,4.0362412722,-0.7163464672,-0.4734539161,-1.5663540239,-4.2986319014,-4.7947790791,-0.0905213699,-1.293845889,-0.8908752853,0.180922292,2.6344507519,0.271628328,0.2047185489,-15.1302884531,0.8409607316,3.3910748494,3.609687405,-0.035478324,6.049900006,1.7099363953,-0.4350523981,0.1460103217,-19.2203120529,3.7790000777,4.8017346127,5.2237852107,1.8951127256,8.8317590022,7.0822747383,0.3683909705,-1.4035043921,6.4762893647,-4.8824579937,7.9338256215,5.560748268
biasActivation=0,1,1,1,1,1,1,1
[BASIC:ACTIVATION]
"org.encog.engine.network.activation.ActivationLinear"
"org.encog.engine.network.activation.ActivationLOG"
"org.encog.engine.network.activation.ActivationLOG"
"org.encog.engine.network.activation.ActivationLOG"
"org.encog.engine.network.activation.ActivationLOG"
"org.encog.engine.network.activation.ActivationLOG"
"org.encog.engine.network.activation.ActivationLOG"
"org.encog.engine.network.activation.ActivationLinear"
