encog,BasicNetwork,java,3.4.0,1,1462936344770
[BASIC]
[BASIC:PARAMS]
[BASIC:NETWORK]
beginTraining=0
connectionLimit=0
contextTargetOffset=0,0,0,0,0,0,0,0
contextTargetSize=0,0,0,0,0,0,0,0
endTraining=7
hasContext=f
inputCount=8
layerCounts=1,4,5,6,8,15,22,9
layerFeedCounts=1,3,4,5,7,14,21,8
layerContextCount=0,0,0,0,0,0,0,0
layerIndex=0,1,5,10,16,24,39,61
output=0.7926874495,1.5315692355,-4.3956285212,3.5711445997,1,-2.7537333521,-3.0172404026,-3.4364284377,-3.168854447,1,2.3071553874,3.8192135756,3.0421597779,2.7276547535,-3.4791321722,1,-3.7605694428,4.8938775408,-4.1617028338,-4.7635617009,1.9046238042,3.9921254821,-4.3622538908,1,-3.349924898,4.5847154619,-3.8175840452,-4.6147018624,4.3232403027,4.4945212658,-4.2400550533,-3.9267099509,3.8977556261,3.8316631353,-3.9405941905,2.6962082277,4.6076529129,4.8029741376,1,-5.4854437552,-5.1556166241,-5.9004690223,3.491873582,-3.7599530079,1.9691754389,3.954680091,-4.455308914,-6.0909633618,4.6470495923,-6.1159458325,-4.5617657541,-1.3536206172,4.7796095306,5.7866463466,-5.7323811772,5.0701920172,-5.233407603,4.9479917093,4.5811630038,3.6517738057,1,69,4.75,0.25,7.7617415531,148.7871975079,-2.5904648054,1.5131067682,-0.25,1
outputCount=1
weightIndex=0,4,19,43,83,188,496,685
weights=0.0936767863,-0.6056777414,0.731979341,-5.6769576955,0.3567098302,-1.0762498983,-0.8539464971,-2.5347129379,-10.9438794578,5.9853994882,7.2595506641,7.856925135,5.8038982458,5.0195141183,-2.2953819433,-4.3887487643,-2.7142372717,-3.2657708479,-6.0191714776,0.6487328946,-2.7414657202,-0.8517458495,0.5213879157,1.198499905,1.2486268993,0.8976841608,-1.3591364498,-2.9102109764,-2.0469069148,0.1566961014,0.3041937794,-0.5907315513,-3.0982119938,-1.669155054,-0.6982578024,2.5608510044,-0.7078721356,-0.1012308771,-2.7406910591,-2.3905031913,0.8252067977,1.8816335799,-0.0312479819,1.5880536257,0.4694470181,-1.180681999,-3.0476775602,2.3544379502,-0.3501619933,1.360793715,-0.9774992644,0.0197622172,1.0409493927,-0.8919066362,-0.8899117824,4.5713487665,2.3951441708,-2.6799131646,2.5169010914,-1.257952664,1.0693452006,-0.7341552145,2.0093189876,3.7340596931,1.1287561581,-0.6272820133,3.0266624779,-2.0168907837,-1.6032048095,0.1633381406,0.0045650753,2.9223534036,-0.4244097073,-2.3063293856,-0.8045282321,-0.9007890815,-0.1377192752,0.6946328449,6.4049812617,-1.514695969,-0.1753461944,-0.2940145485,3.4898384691,0.1150507331,-2.6187250719,-0.2692539663,1.0248916774,3.1790062542,3.637307316,7.1270511652,1.2426982531,-0.9785018633,-0.5341964241,7.5346593372,4.1758608731,2.8224952762,-2.2996739152,-2.7845553546,-6.0314320412,-1.2351813028,-4.7631614312,-8.3897085639,5.5096012833,9.4601096592,6.5716157458,4.0418664551,2.0257234449,1.4370009641,3.6257733379,6.9368062522,5.0452581064,0.1437962814,-2.917025808,-0.5979721781,2.1135118407,-1.1297432701,0.7440811782,-3.1911605684,-2.3988045066,-1.5504047575,-0.276654546,-7.0021620544,-5.8278309471,-1.4148625085,-1.2979682448,-1.5279031543,-0.5362457151,-2.0845757106,4.1258597264,1.4098866561,5.018206133,8.5690089268,-9.0091059063,-6.3842369835,-5.8933658493,-9.8407345982,2.219450633,-3.8181479939,-2.2142224393,-8.8687947686,-4.185788716,-2.5767581961,9.3893788269,1.2764353409,-1.6586452108,2.6407585842,-2.5332526287,-0.5497243373,4.9200547962,-2.3155942063,-1.3198077304,3.5278205105,-4.0876744868,-0.8277432674,-4.5217172725,1.2508184819,-3.1149018199,1.7020504018,1.3198813016,2.3620930591,1.8718408552,-1.3320330272,1.9069324106,4.6175097497,-3.7382819,-4.2314334969,-2.2041958017,-4.2736094656,-5.6725143676,-4.6289691831,0.2158590773,-0.8656162898,4.9660392491,-3.1140615836,-3.3427797736,0.6991435283,-0.5611106611,1.5729901587,-3.0347163931,3.2037856304,3.489408881,-1.3289146146,-5.6761919294,8.3241418528,4.7746258513,1.192343772,1.1057349037,-3.4573996266,4.1782008948,5.301459725,-0.6062759488,-2.6551146368,3.1039747327,-2.1225472443,4.6250368808,-1.3341046198,-1.4299605706,-3.8535145725,1.8975530047,2.8049786229,-2.7981488321,5.0484572262,0.1292183377,0.5973748133,7.6195205915,-0.7885847544,-2.6423592797,-3.1501993795,4.4557029254,3.3357931077,0.4515494128,-2.2985296875,-5.0118128252,0.5439601925,2.8041052091,3.957697554,6.5850785215,-2.2854305798,-3.1463224442,1.5401371816,5.550613857,0.7459126556,-1.3382124382,-1.7697365535,0.6223568313,-0.8461396068,2.6685732568,-2.5390278537,1.0261221339,-2.4369627266,1.639925129,-1.2808089231,2.4087073953,6.5145113537,2.3512976522,-2.8754299149,-1.3029934084,-0.7988823737,4.5857566747,-2.7347949032,1.6282769835,-5.0072176326,-1.9882703146,0.567654553,-0.3161168168,-2.8299727782,0.3046742907,1.3364653992,3.4261671192,-4.0209562727,-3.009940486,-2.1650804704,6.7024773805,3.548657688,6.5572577376,4.6399011891,0.4701475111,-2.3225958775,-0.8140834794,-0.8237885325,5.9343005,-1.0772345883,3.4109601211,-1.6161998319,2.1876801002,-1.749958804,-0.1012770837,-8.5239114147,2.8455731435,1.8675364015,0.8948180647,-1.9261251164,-1.0337075134,-2.0762347553,0.3659368336,1.8691013959,-2.7666984419,-0.1481974142,0.1524279876,1.4197931777,-3.3898046451,-1.4850510639,-6.0927667698,-1.1163337773,-2.4755491864,0.4687856316,-4.2945491371,-4.0218126239,4.0042202901,3.1829986188,-0.3681333842,-4.1022721852,-5.4401444211,1.114625961,0.7992571926,3.8190077811,-5.4418799606,-2.0453719228,-1.6680059681,-7.3695990506,3.4823237023,-1.7379717967,-2.0673306605,-3.4171924236,-5.1534463023,-4.0282252542,-3.7721751041,-4.7116416409,-0.6304432706,-6.0192340612,2.4921067873,8.103919972,0.1450675479,-4.587538857,2.5589128068,0.5775241856,-1.203816115,-6.4906687069,1.0836540698,2.717540131,-0.6483627028,0.0183706109,-3.9301358886,-1.483059253,7.1872374906,-2.595776173,-7.3727939694,0.9269332564,-6.3936366053,-2.6551708175,-2.3924297781,5.7221625496,-0.0189655474,3.0899708555,-2.7004037568,-2.4359240763,-5.4413844869,1.7424507406,-0.7697807543,-3.1871667512,-0.4468199456,-3.3323490238,-1.6539683142,-2.21741602,-4.5222301982,-2.1038424005,2.3550999473,2.0676108064,-0.4173509979,-3.9112430345,-3.5967287603,2.2708543108,3.3884588351,7.7769688602,-1.5438335789,-1.0945710258,-1.9551586779,1.582940497,-4.7759133294,4.7952750503,0.1982824203,0.885355123,-2.8613276101,-5.0227454854,0.2284371118,0.4289504862,2.7176284721,1.2393407066,1.3767397061,0.7317755479,6.6343495023,3.0854690409,1.1411472883,-3.0760054426,-2.022936661,-2.9127820972,5.7472716965,6.1237038075,4.0836458034,-0.0764700133,-1.6605974096,-1.8180241924,1.388097546,0.4498375861,0.2112997922,0.3824110061,-4.5354723121,-7.6573774152,-1.0920493697,2.5502066629,-0.4819183983,3.8230320713,-1.8249505159,1.4842593808,0.2851838754,3.5499834733,-0.078311021,-3.6038882905,0.1571346476,-1.4157027549,-0.6755809953,0.4214150203,-3.3932044559,5.1299684253,-0.5605097347,1.5864406142,-4.4057664412,0.7525686476,-1.0714787128,5.0640524543,-1.3868857271,0.6404978174,-0.3195134037,-3.2639612584,-9.6249913285,0.8735547269,0.2045726067,2.1857969355,-0.5292789121,2.1576443002,1.6583630411,5.0130602411,-0.8589845684,-3.1434759392,-1.4354999357,1.912769739,-3.037131869,-0.3406849639,-0.8417455699,-0.0175634519,-9.7422198636,-0.5083845766,-5.9817192999,-5.0340076377,5.9504592959,-0.705024232,-4.0749506268,-1.8204507333,-2.4341493425,-3.4195664153,-6.5647445929,2.8134166969,-2.4487442702,0.9126679946,-4.5384072112,-3.6500695683,-3.1355630942,1.8252136829,0.8228374301,-2.4647665899,-7.0120936556,-4.9425733351,-4.8030019788,-1.5836587869,1.0296775124,-0.0216196008,-0.450134457,0.8804520364,-5.2379216701,1.5911340346,-1.9432290934,1.8457093396,-3.9809754319,1.0786780532,3.3737919994,2.951568305,-0.7715109506,-2.2434460349,-0.8371782617,1.0606952025,5.9719965847,6.5687158905,-2.1864186474,2.0687315591,-8.1048526048,-4.6878932549,-0.2817411014,4.7309091593,-7.1523577687,5.1881660779,-2.6764562287,2.0415916961,2.1223887013,5.4567690136,-2.0041290298,-2.3599275539,3.3507468578,-3.2043259645,0.6784866475,-1.1505163492,-8.0826218592,1.9171696131,3.4492450266,8.3383597389,-5.9711883027,1.6222152238,-0.5280693762,-4.8956006856,0.0717772026,-0.1193932851,-0.6768300998,17.2657933666,-8.5283677272,-2.1048676612,0.5395388012,-0.6290234232,-4.3718247926,-3.4852693884,0.3074371844,-0.2095293271,17.4510668221,-4.6631356956,1.8613382854,-3.558402472,-0.7165840271,0.793809022,-2.0750626546,3.6150201514,-2.3585481865,-7.1947815762,1.3538770404,-0.0020925105,5.8450439682,-1.3480373123,5.2259844117,-0.253364452,0.312440943,0.2533606931,-12.9944469755,1.5792811406,2.6193481232,2.2959376007,-1.3008805001,-9.6847775561,-3.2365171794,0.1414607156,1.0736805606,13.8619259883,-4.9726561716,-8.769510974,-4.0139319291,0.0138980854,-1.0475657547,-1.9384015947,-0.1183565637,-0.2234610734,-7.1229611529,-1.5895771023,-4.5781273431,5.3543941796,-1.671289774,-12.5310772313,-2.8424221262,-0.1365408642,1.6475539323,2.5437964015,5.81330611,-9.3167944873,1.3579714065,-1.9789391159,-1.7473116474,0.7857461263,0.1811183728,0.1162402038,-9.0077289093,-6.687020919,1.7788562292,5.5256549301,-2.2137777476,-3.925479902,-2.5757940011,-0.7991825475,-1.6094658636,-0.7182078673,0.1343643831,-1.2273802197,-2.2682734525,-1.487444938,7.4938142114,1.3119018128,-0.5041690002,0.7191412377,-14.6552686617,2.9252687478,4.44000829,3.3333706022,-1.2624984213,3.690460199,0.7529756171,0.4029080279,-2.6375509272,1.6090907694,-7.7392660789,-1.5109973141,-1.0600760894,1.6391326272,5.3452310037,2.544419716,-0.3253575243,-1.507636743,6.0327168892,-5.9010540009,1.4982171744,-4.3927323452,-0.6493158328,5.4876543236,0.3881603869,-0.4821964921,0.0503456363,-8.8815295313,7.6862754193,4.6037430253,2.0736174387,2.0458611376,1.1141239046,-0.2628864128,1.483415716,-0.2891381223,3.8740261686,-3.699187719,3.4358080069,-3.5726547069,1.1759711012,2.3634301839,0.9730889176,3.9685853308,1.4152470815,-4.7786488744,0.4043704279,0.4451105113,1.2909506175,-0.7137092983,-5.8711203232,-1.9974266606,0.5604064798,-1.342148161,1.0747770372,-5.4282666038,-1.6167056422,-3.3967944991,1.8081659907,17.5606566484,4.0823250197,0.6209177756,-0.0311009417,5.14040596,-8.3803310399,13.6561589714,1.4638052423,0.5619758958,7.1362412722,1.1836535328,-0.5734539161,-1.8663540239,-3.9986319014,-5.2947790791,3.8094786301,-2.193845889,-0.5908752853,0.080922292,2.3344507519,0.571628328,0.7047185489,-17.0302884531,0.1409607316,3.6910748494,4.709687405,0.064521676,5.749900006,3.2099363953,-0.3350523981,-0.1539896783,-21.7203120529,4.0790000777,7.5017346127,6.7237852107,1.7951127256,10.7317590022,5.7822747383,0.6683909705,-0.7035043921,5.3762893647,-5.3824579937,10.2338256215,7.660748268
biasActivation=0,1,1,1,1,1,1,1
[BASIC:ACTIVATION]
"org.encog.engine.network.activation.ActivationLinear"
"org.encog.engine.network.activation.ActivationLOG"
"org.encog.engine.network.activation.ActivationLOG"
"org.encog.engine.network.activation.ActivationLOG"
"org.encog.engine.network.activation.ActivationLOG"
"org.encog.engine.network.activation.ActivationLOG"
"org.encog.engine.network.activation.ActivationLOG"
"org.encog.engine.network.activation.ActivationLinear"
