encog,BasicNetwork,java,3.4.0,1,1462937341108
[BASIC]
[BASIC:PARAMS]
[BASIC:NETWORK]
beginTraining=0
connectionLimit=0
contextTargetOffset=0,0,0,0,0,0,0,0
contextTargetSize=0,0,0,0,0,0,0,0
endTraining=7
hasContext=f
inputCount=8
layerCounts=1,4,5,6,8,15,22,9
layerFeedCounts=1,3,4,5,7,14,21,8
layerContextCount=0,0,0,0,0,0,0,0
layerIndex=0,1,5,10,16,24,39,61
output=1.316632706,-1.5022026128,-4.6230481352,3.9435719354,1,-3.6800913607,-3.4307793029,-3.3665680065,-3.3330568037,1,-4.2385337639,3.6226495586,3.2971132186,3.7716374761,-4.0614408608,1,-4.2296023958,4.5222188451,-4.0874965391,-4.5776725493,-3.5135866989,4.7437668505,-4.5018108392,1,4.8061827333,3.9578996775,2.2399763241,-4.9686401688,4.6026421861,5.3944212432,-3.9721836782,-5.2065845061,5.3485964323,4.6698852832,-4.2405005469,4.2873398972,5.6657542406,5.0499671939,1,-5.1656882309,-5.4987175064,-6.8037098851,4.9865714883,-4.3776476209,5.6942234408,3.9737496639,4.0530895559,-6.7594747758,-5.9034361318,-6.6823759997,-5.2107818366,1.5631558654,4.5006125958,6.4346248939,-6.5224041034,-4.9134982314,-4.4146714667,-4.1051837316,-6.220294428,6.6598442189,1,107.75,1.5,0.25,8.4727612693,162.2102670119,-2.4118025617,1.7841548149,0,1
outputCount=1
weightIndex=0,4,19,43,83,188,496,685
weights=-0.0063232137,-0.7056777414,0.231979341,-3.9769576955,0.2567098302,-0.1762498983,-0.3539464971,-2.0347129379,-9.6438794578,5.2853994882,8.3595506641,9.356925135,6.9038982458,3.3195141183,-1.5953819433,-5.4887487643,-4.2142372717,-4.3657708479,-4.3191714776,2.9487328946,-0.4414657202,-1.5517458495,-0.9786120843,3.698499905,-1.0513731007,3.3976841608,1.1408635502,-2.6102109764,-0.7469069148,1.8566961014,-0.9958062206,1.1092684487,-1.9982119938,-0.369155054,0.4017421976,3.4608510044,-2.6078721356,0.7987691229,-2.0406910591,-1.2905031913,0.7252067977,3.1816335799,-2.1312479819,5.2880536257,0.1694470181,-0.680681999,-1.3476775602,5.6544379502,-4.0501619933,3.260793715,-1.2774992644,-1.0802377828,-1.6590506073,-0.5919066362,0.4100882176,-0.1286512335,4.4951441708,-2.9799131646,3.0169010914,1.642047336,0.5693452006,-1.4341552145,0.9093189876,1.2340596931,3.2287561581,-2.9272820133,3.9266624779,-2.1168907837,-1.1032048095,0.2633381406,-1.8954349247,-1.1776465964,1.8755902927,-3.8063293856,0.0954717679,0.5992109185,-0.6377192752,1.1946328449,6.3049812617,-0.414695969,-2.6753461944,1.6059854515,1.1898384691,0.2150507331,-2.9187250719,0.4307460337,-1.4751083226,-2.7209937458,2.937307316,9.8270511652,-0.0573017469,1.3214981367,-1.0341964241,7.4346593372,3.6758608731,2.9224952762,-5.1996739152,-2.4845553546,-5.5314320412,0.2648186972,-5.4631614312,-9.8897085639,5.4096012833,6.9601096592,3.0716157458,3.3418664551,3.9257234449,0.9370009641,5.3257733379,5.6368062522,3.5452581064,0.4437962814,-3.817025808,-2.0979721781,-0.3864881593,-6.0297432701,-2.9559188218,-4.4911605684,-2.6988045066,-1.0504047575,-2.976654546,-3.1021620544,-4.5278309471,-1.3148625085,-3.1979682448,-1.0279031543,4.7637542849,-2.5845757106,3.6258597264,-0.4901133439,2.518206133,5.2690089268,-11.3091059063,-6.6842369835,-1.7933658493,-7.3407345982,4.919450633,-2.7181479939,1.0857775607,-7.1687947686,-4.485788716,-1.4767581961,7.4893788269,-1.6235646591,-0.9586452108,2.1407585842,-1.6332526287,-3.2497243373,5.2200547962,0.9844057937,3.5801922696,0.8278205105,-2.1876744868,0.2722567326,-3.6217172725,2.9508184819,-3.4149018199,2.8020504018,4.8198813016,2.6620930591,0.9718408552,0.1679669728,6.0069324106,3.5175097497,-6.4382819,-6.3314334969,-3.9041958017,-5.1736094656,-4.1725143676,-6.3289691831,-0.4841409227,4.6343837102,4.0660392491,-2.0140615836,-4.2427797736,2.1991435283,-1.8611106611,0.2729901587,-2.9347163931,1.3037856304,0.789408881,-0.8289146146,-4.5761919294,8.2241418528,4.4746258513,-0.707656228,-0.3942650963,-4.1573996266,2.6782008948,4.801459725,-1.1062759488,5.8448853632,-8.7960252673,0.7774527557,0.1250368808,0.5658953802,-2.1299605706,-4.5535145725,1.7975530047,0.9049786229,-0.8981488321,8.3484572262,1.2292183377,2.8973748133,9.9195205915,1.9114152456,-6.3423592797,-1.2501993795,6.1557029254,4.2357931077,1.7515494128,-1.5985296875,-3.5118128252,2.0439601925,1.5041052091,6.857697554,3.6850785215,-2.3854305798,-3.2463224442,2.0401371816,6.250613857,3.0459126556,-1.4382124382,0.7302634465,0.1223568313,-0.5461396068,0.9685732568,-0.0390278537,-0.6738778661,-0.3369627266,2.539925129,-1.3808089231,5.1087073953,8.2145113537,4.0512976522,4.0245700851,-10.6029934084,-1.8988823737,6.8857566747,4.1652050968,2.7282769835,-1.5072176326,-0.2882703146,1.067654553,2.5838831832,-4.7299727782,-0.1953257093,5.0364653992,6.3261671192,-5.5209562727,-5.109940486,0.1349195296,7.0024773805,4.648657688,6.8572577376,3.1399011891,1.1701475111,-1.8225958775,1.6859165206,0.4762114675,-3.9656995,0.2227654117,3.3109601211,-0.7161998319,4.0876801002,0.150041196,1.5987229163,-5.4239114147,3.3455731435,5.1675364015,0.3948180647,-0.6261251164,-0.3337075134,-1.9762347553,0.8659368336,0.7691013959,2.5333015581,0.1518025858,2.8524279876,8.9197931777,-15.8898046451,-1.7850510639,-1.1927667698,-0.0163337773,-1.1755491864,3.9687856316,-2.7945491371,-6.3218126239,5.9042202901,2.4829986188,-0.8681333842,-2.0022721852,-2.1401444211,0.214625961,-3.1007428074,3.7190077811,-5.1418799606,-2.5453719228,-2.5680059681,-6.6695990506,2.7823237023,-2.8379717967,-7.1673306605,-2.1171924236,-8.2534463023,-2.1282252542,-5.8721751041,-3.4116416409,-0.5304432706,-3.9192340612,2.7921067873,6.803919972,0.6450675479,-4.887538857,2.8589128068,-0.1224758144,-1.303816115,-7.7906687069,2.7836540698,4.217540131,-3.5483627028,0.3183706109,-2.8301358886,-8.583059253,16.6872374906,-3.095776173,-3.4727939694,1.2269332564,-5.0936366053,-3.5551708175,-0.6924297781,4.0221625496,0.4810344526,3.1899708555,-2.6004037568,-3.3359240763,-4.9413844869,0.4424507406,7.3302192457,-3.4871667512,-1.1468199456,-3.6323490238,-3.1539683142,-2.51741602,-4.4222301982,-9.0038424005,5.0550999473,-0.2323891936,-5.9173509979,-7.6112430345,-4.2967287603,0.9708543108,3.4884588351,8.6769688602,1.1561664211,-1.5945710258,-1.0551586779,0.682940497,-1.8759133294,5.4952750503,-0.3017175797,1.385355123,-3.3613276101,-5.7227454854,-4.8715628882,-2.4710495138,0.6176284721,-3.0606592934,6.6767397061,3.8317755479,3.3343495023,-0.4145309591,-0.7588527117,-1.9760054426,-4.322936661,0.9872179028,7.6472716965,0.4237038075,6.9836458034,-4.1764700133,-6.7605974096,-0.7180241924,1.888097546,-2.6501624139,2.9112997922,2.2824110061,-6.0354723121,-12.1573774152,-4.7920493697,1.0502066629,2.6180816017,5.9230320713,-5.1249505159,-2.2157406192,-1.4148161246,1.0499834733,-2.978311021,1.8961117095,1.6571346476,-2.5157027549,1.4244190047,-1.6785849797,-2.6932044559,7.8299684253,0.9394902653,4.4864406142,-0.5057664412,2.0525686476,-0.1714787128,3.9640524543,-0.6868857271,0.3404978174,-1.2195134037,-3.7639612584,-9.9249913285,-1.0264452731,1.1045726067,0.4857969355,0.5707210879,-0.7423556998,1.7583630411,0.5130602411,-0.9589845684,-2.6434759392,-1.7354999357,1.012769739,-1.937131869,-1.0406849639,-1.7417455699,-0.3175634519,-11.8422198636,-2.4083845766,-7.6817192999,-10.1340076377,9.8504592959,-0.005024232,-3.9749506268,-2.1204507333,-2.7341493425,-4.5195664153,-7.8647445929,3.3134166969,2.4512557298,0.8126679946,-2.0384072112,-6.7500695683,-2.0355630942,1.1252136829,7.7228374301,-2.9647665899,-5.5120936556,-3.2425733351,-1.7030019788,-4.6836587869,-4.2703224876,-2.3216196008,-2.350134457,4.7804520364,-4.7379216701,0.2911340346,-6.4432290934,-4.8542906604,-8.4809754319,-1.2213219468,1.6737919994,3.851568305,2.5284890494,-5.5434460349,-4.9371782617,-0.0393047975,1.2719965847,5.2687158905,1.9135813526,4.9687315591,-6.8048526048,-2.7878932549,0.6182588986,18.4309091593,-11.4523577687,2.2881660779,5.8235437713,4.3415916961,6.2223887013,10.1567690136,0.0958709702,-8.6599275539,2.2507468578,-5.7043259645,-1.4215133525,-0.8505163492,-12.3826218592,-6.5828303869,0.7492450266,5.0383597389,-9.6711883027,-1.4777847762,0.3719306238,-7.3956006856,-2.6282227974,-2.8193932851,-0.9768300998,7.1657933666,-17.0283677272,-11.8048676612,-0.3604611988,-1.1290234232,-1.2718247926,-2.1852693884,-2.9925628156,-0.3095293271,8.3510668221,-6.3631356956,-0.4386617146,-6.058402472,-2.4165840271,-3.106190978,2.4249373454,-2.4849798486,-4.2585481865,-14.6947815762,0.8538770404,3.6979074895,10.9450439682,-1.4480373123,-7.2740155883,-0.953364452,-0.387559057,1.3533606931,-24.8944469755,1.6792811406,-1.0806518768,5.1959376007,-2.4008805001,-12.1847775561,-7.5365171794,0.6414607156,1.7736805606,22.9619259883,-1.0726561716,-16.069510974,-7.5139319291,-0.6861019146,-8.3475657547,-4.2384015947,2.3816434363,1.8765389266,-10.2229611529,-0.2895771023,-10.4781273431,6.4543941796,-2.371289774,-22.4310772313,0.2575778738,-0.6365408642,1.7475539323,-6.3562035985,7.91330611,-17.6167944873,5.2579714065,-0.6789391159,-5.4473116474,-4.3142538737,-0.9188816272,0.6162402038,-10.1077289093,-2.987020919,-8.5211437708,-0.3743450699,-4.9137777476,-9.625479902,-7.0757940011,-3.6991825475,-1.9094658636,-6.6182078673,-4.1656356169,-12.3273802197,-9.7682734525,-2.787444938,-5.8061857886,-4.3880981872,-1.4041690002,-0.7808587623,-20.1552686617,-0.1747312522,-6.25999171,6.6333706022,-2.1624984213,0.190460199,-3.5470243829,-1.2970919721,-3.1375509272,0.1090907694,-7.2392660789,-7.4109973141,-2.3600760894,1.9391326272,9.6452310037,-0.555580284,0.7746424757,-2.007636743,15.9327168892,-7.6010540009,3.9982171744,-6.2927323452,-0.3493158328,2.9876543236,3.6881603869,-0.3821964921,-0.2496543637,-14.5815295313,6.9862754193,8.9037430253,3.5736174387,0.7458611376,8.6141239046,0.6371135872,-2.216584284,0.0108618777,1.9740261686,-5.999187719,10.1358080069,-0.0726547069,1.4759711012,0.4634301839,2.4730889176,4.0685853308,2.3152470815,-5.8786488744,0.9043704279,-2.6548894887,7.3909506175,-0.2137092983,-14.7711203232,-4.4974266606,-1.5395935202,-3.842148161,2.5747770372,-6.7282666038,-12.5167056422,-6.8967944991,-1.6918340093,16.6606566484,4.5823250197,-1.6790822244,0.0688990583,0.24040596,-5.4803310399,18.1561589714,5.9638052423,1.2619758958,14.2362412722,1.6836535328,0.5265460839,-1.1663540239,3.3013680986,-5.3947790791,9.1094786301,-10.293845889,-3.0908752853,-8.019077708,1.0344507519,4.471628328,1.6047185489,-0.3302884531,5.0409607316,4.9910748494,5.009687405,-3.435478324,-7.350099994,-7.2900636047,-0.2350523981,-1.2539896783,-21.6203120529,-0.4209999223,-6.7982653873,9.4237852107,3.0951127256,14.8317590022,6.8822747383,1.5683909705,2.1964956079,-1.1237106353,1.9175420063,14.9338256215,17.760748268
biasActivation=0,1,1,1,1,1,1,1
[BASIC:ACTIVATION]
"org.encog.engine.network.activation.ActivationLinear"
"org.encog.engine.network.activation.ActivationLOG"
"org.encog.engine.network.activation.ActivationLOG"
"org.encog.engine.network.activation.ActivationLOG"
"org.encog.engine.network.activation.ActivationLOG"
"org.encog.engine.network.activation.ActivationLOG"
"org.encog.engine.network.activation.ActivationLOG"
"org.encog.engine.network.activation.ActivationLinear"
